sequential/lstm/kernel:0
(1, 320)
[[ 0.07901745 -0.02556338  0.12128923 -0.15606032  0.14525622  0.14298978
   0.02891579  0.14377399  0.05535845 -0.07886079 -0.02753831  0.05229455
  -0.0289731  -0.10269422  0.14833759  0.21650799 -0.04712748  0.00915997
   0.09014272  0.22442202  0.0934201  -0.00199805  0.10218572  0.00749369
   0.0661766  -0.03151993  0.14179952  0.02898969 -0.07491262  0.04808738
   0.12692653  0.00952237 -0.06620297 -0.1083371   0.00816337 -0.04604677
   0.00992721  0.06795332  0.01382662  0.03229953  0.14082025 -0.01336034
  -0.08719997  0.09583177  0.07395264 -0.08955707 -0.0764242   0.06904659
   0.00921427  0.05213878 -0.06170725  0.07207423 -0.03581433 -0.02379306
   0.17653634 -0.09190682 -0.13340518  0.14323619  0.03935283 -0.00900746
  -0.07602816  0.16809064  0.1233958  -0.04376096  0.08654018  0.13821258
   0.02373195  0.06368154 -0.04022053 -0.06728835  0.07560354  0.10731839
   0.12034315  0.0525119   0.10823431 -0.06089732 -0.13655591  0.02067292
  -0.08698986 -0.111948   -0.00770981  0.05817498  0.12170992 -0.04568691
   0.002995   -0.01516114  0.10202219  0.03985809  0.07941403  0.13792913
  -0.0328912   0.12477786  0.04842718  0.05717751  0.06177127  0.14725766
  -0.11749823  0.10952906 -0.08651373 -0.0803737  -0.06542964  0.05451966
   0.04061561  0.13315564 -0.00336999 -0.01309396 -0.12420458 -0.02790174
  -0.00992322 -0.00198606  0.07676218  0.01221634  0.09671134 -0.08837798
   0.01000494  0.05423628  0.13544154 -0.02376084  0.04584266 -0.00950881
   0.02335971  0.03752505  0.06297711 -0.10384783  0.00757602 -0.01242172
   0.08265347  0.09204827 -0.11776973  0.02908594  0.03105555  0.13340013
  -0.07052425 -0.11338534  0.05390456  0.1285942   0.0154142  -0.06002188
   0.07017381  0.0949723  -0.12396337 -0.12685482  0.04326091  0.00608784
  -0.03641759  0.01586827  0.09848396 -0.05035936 -0.02675706 -0.0981214
   0.09770106  0.0604938   0.01905675  0.09026348 -0.08680283  0.01273888
   0.00968355  0.0894237  -0.00400688 -0.12448782 -0.09671509 -0.08749818
   0.08837725 -0.03607594 -0.12678312  0.12153168  0.04837702 -0.06147186
   0.04701889  0.13181463 -0.05683166 -0.07022119 -0.03591368  0.03886922
   0.09391103  0.1040433   0.12977615 -0.04341374  0.09665177  0.15447737
   0.06374092  0.07343996  0.12637018 -0.12540287  0.12554516 -0.08558143
  -0.10417008 -0.06493013  0.12806842 -0.10203288 -0.06364675 -0.0051117
   0.0336358  -0.02399513  0.15463911 -0.0438383  -0.07065781  0.09750371
   0.07598466  0.06623399  0.03300989  0.08434136  0.08412468  0.11536112
  -0.09283955  0.00989881  0.05819852  0.11710615 -0.02113871  0.08224721
  -0.09673239 -0.03075659 -0.08447292  0.10965056 -0.08572756 -0.02366959
  -0.00109001 -0.0935597  -0.10601124  0.1059886   0.13221039 -0.13859464
  -0.13118227 -0.01817488  0.04053143 -0.12238584  0.01754919  0.12059644
  -0.1280855  -0.0383923  -0.03946325 -0.04407964  0.05355012 -0.1451975
  -0.11675574 -0.02321335 -0.05971973  0.10382389 -0.11305935  0.03001592
   0.08221932 -0.01276625  0.06239648  0.05327608  0.09682623  0.11070348
   0.09324949  0.0866605   0.06915518  0.14035292  0.11677362 -0.0381548
   0.07143327  0.1047871  -0.03471624  0.06814439 -0.07300085  0.07155305
   0.15438758  0.08933613 -0.03781887 -0.00990039  0.06676592  0.07861425
   0.12147146  0.00297965  0.09405261  0.04314715 -0.01141688  0.02424433
  -0.03855167  0.01774469  0.04189918  0.10142797  0.234599    0.08386966
   0.11875012 -0.09542821  0.03113967  0.05905413  0.16994518 -0.04696855
  -0.04515389  0.14305262  0.16405338 -0.07625946 -0.02219235  0.09135932
  -0.10134023  0.05759094  0.02633969 -0.05687927  0.19622831 -0.04576464
   0.15954894  0.04352365  0.03921245 -0.09242859  0.14245856 -0.05225259
  -0.07568846  0.23001209  0.149314    0.10835513 -0.05440129 -0.10501714
  -0.02110881 -0.10590816 -0.01263536  0.00306393 -0.02591854 -0.11390756
   0.04532779  0.03698658  0.02870076 -0.08517333 -0.07559317  0.12835526
  -0.02134025 -0.03342311]]
sequential/lstm/recurrent_kernel:0
(80, 320)
[[-0.11311025 -0.00204608 -0.00488662 ... -0.05329266  0.08583953
  -0.08686627]
 [-0.07345156  0.03181829  0.09239271 ... -0.01840683 -0.02105495
   0.00151664]
 [-0.03665285 -0.02922465 -0.05158506 ...  0.00303377  0.01695691
  -0.02689874]
 ...
 [ 0.01936889 -0.01351994  0.06889924 ...  0.09108119  0.05570004
   0.03731685]
 [-0.00059872 -0.05601434 -0.02706048 ... -0.00285562  0.05540739
  -0.01655065]
 [ 0.01536707  0.12539887  0.07948059 ...  0.08448783 -0.02748066
   0.05321681]]
sequential/lstm/bias:0
(320,)
[-1.23308003e-02  1.45625705e-02  3.95902572e-03 -3.84858847e-02
  3.65118980e-02  6.06619427e-03  1.79689401e-03  4.25638026e-03
 -2.87127052e-03  1.09593868e-02 -1.00666089e-02  5.09325787e-03
  3.76297571e-02  3.20685431e-05  9.10185464e-03  3.77840847e-02
  2.64417310e-03  2.67762807e-03  4.62054880e-03  7.92611316e-02
 -1.01692425e-02 -9.67297237e-04 -3.11588054e-03 -3.82772251e-03
  5.96441375e-03  5.06342575e-03  1.16757932e-03  1.74520083e-03
 -2.59930443e-04  7.36865075e-03  1.24848902e-03 -6.37637684e-03
 -8.91134888e-03 -2.94173835e-03  5.54799810e-02 -3.26059782e-03
  2.09834846e-03 -1.52049121e-04  7.32044037e-03  1.64811150e-03
  2.89956224e-03  1.32860141e-02  8.24259222e-03 -9.59033053e-03
  1.31003270e-02 -1.05413352e-03 -5.42714307e-03 -7.29292631e-03
 -1.40478006e-02  2.22949143e-02  1.70372822e-03  2.60508223e-03
  1.49308443e-02  6.53750589e-03  1.76504683e-02 -3.69370892e-03
 -9.32983495e-03  1.48999807e-03 -1.09108817e-03  4.73980838e-03
  1.14421612e-02  9.30759236e-02  5.11724129e-03 -1.92666687e-02
 -7.33389286e-03 -9.18366364e-04 -1.07922591e-02  2.79060550e-05
 -4.82330285e-03 -4.59852908e-03  5.24499314e-03 -1.18572954e-02
  2.72751972e-03  4.95862998e-02  3.34347878e-03  1.16986666e-04
 -1.30693223e-02  4.82379533e-02  1.64271425e-02 -1.10901482e-02
  9.88808751e-01  9.88703847e-01  9.96891141e-01  9.46899116e-01
  9.95304942e-01  9.97427821e-01  9.84448254e-01  9.94678557e-01
  9.93531764e-01  9.84376311e-01  9.89009619e-01  9.95223939e-01
  9.98613715e-01  9.98176992e-01  9.73489642e-01  9.57391620e-01
  9.92112160e-01  9.94000018e-01  9.94590342e-01  9.52583313e-01
  9.85743701e-01  9.68013883e-01  9.85029161e-01  9.88535821e-01
  9.91615474e-01  9.94426370e-01  9.91646469e-01  9.95012462e-01
  9.93799269e-01  9.93939340e-01  9.96069312e-01  9.92758691e-01
  9.90335643e-01  9.93236601e-01  9.88832593e-01  9.83626306e-01
  9.83250201e-01  9.92531061e-01  9.84772563e-01  9.93741751e-01
  9.88727450e-01  9.96577144e-01  9.88077462e-01  9.83964622e-01
  9.91538405e-01  9.90675688e-01  9.89703417e-01  9.89717543e-01
  9.80992913e-01  9.80857730e-01  9.80059683e-01  9.98102665e-01
  9.65076447e-01  9.95615184e-01  9.84445930e-01  9.85733509e-01
  9.90001500e-01  9.91531491e-01  9.90281701e-01  9.95820463e-01
  9.88191545e-01  9.69049037e-01  9.96942818e-01  9.59347725e-01
  9.92388666e-01  9.95861292e-01  9.87827182e-01  9.93501842e-01
  9.90272820e-01  9.89921749e-01  9.96089578e-01  9.86591399e-01
  9.94163811e-01  9.87695873e-01  9.87627149e-01  9.97984648e-01
  9.83638704e-01  9.84575331e-01  9.85230446e-01  9.82991159e-01
  1.44075146e-02  1.14584221e-02 -1.21137602e-02  7.90844485e-03
  2.06950903e-02 -1.22378571e-02 -8.70095380e-03  9.20855813e-03
 -8.74876417e-03 -2.27802377e-02  1.73541047e-02  9.54151805e-03
  2.31309352e-03 -2.55726511e-03 -9.20979492e-03 -1.91555843e-02
 -1.91451553e-02  1.02732908e-02 -1.54516390e-02 -2.46494357e-02
 -1.35497423e-02 -1.57008674e-02 -2.16560215e-02  2.08049919e-02
 -1.59875676e-02  1.14732357e-02  1.33456588e-02  1.18561862e-02
 -1.33972103e-02  1.62893943e-02  1.07794544e-02 -3.00720520e-03
 -1.08275069e-02  1.04021858e-02 -2.87014917e-02  1.49509683e-02
  7.87627045e-03 -1.29313637e-02 -1.86918564e-02 -1.12810647e-02
 -2.06974684e-03 -1.63504817e-02 -1.57684423e-02 -2.83083115e-02
  1.55409835e-02 -1.07880235e-02 -1.63242444e-02 -2.45371386e-02
  1.30254105e-02 -1.88946761e-02  1.79357789e-02  3.28678684e-03
  1.19914059e-02 -1.70631185e-02  2.11160649e-02  3.77623457e-03
 -3.38545768e-04  1.63721815e-02  1.77869983e-02 -1.66734345e-02
 -2.49450952e-02  2.38896441e-02  1.65136177e-02  8.29401053e-03
  2.64909584e-03  1.38538592e-02 -3.42827500e-03 -1.83533169e-02
  1.21565089e-02  1.92397144e-02  8.30189511e-03  1.04255471e-02
 -9.92685650e-03  2.43580900e-02  2.00071931e-02  5.03305811e-03
  1.25812469e-02 -1.83040854e-02  2.15112194e-02 -6.98557170e-03
 -1.21107874e-02  1.46071110e-02  3.89135489e-03 -3.91741619e-02
  3.61385792e-02  5.99532900e-03 -2.14008105e-05  4.19385917e-03
 -2.92244344e-03  8.24698061e-03 -1.01822475e-02  5.86062344e-03
  3.46145146e-02 -7.68131576e-04  1.27846450e-02  3.92726697e-02
  3.06087616e-03  1.97685231e-03  3.45519162e-03  8.09731483e-02
 -9.79339611e-03 -4.83503594e-04 -2.98952358e-03 -4.50558029e-03
  4.91973758e-03  4.85497247e-03  1.57427334e-03  1.68184994e-03
 -3.30882031e-04  7.41399452e-03  2.12027971e-03 -6.29085582e-03
 -8.80984683e-03 -3.76880285e-03  4.79160696e-02 -3.25328903e-03
  3.39074119e-04  9.56103322e-04  7.25944387e-03  1.41434232e-03
  1.94262445e-03  1.37656052e-02  8.16813670e-03 -1.01172123e-02
  1.12351561e-02 -8.85937188e-04 -5.46009699e-03 -7.44098006e-03
 -1.32672815e-02  2.17411742e-02  1.55248388e-03  3.32636875e-03
  8.41558725e-03  6.78275339e-03  1.64467227e-02 -4.23933240e-03
 -9.62971337e-03  3.40887415e-03 -2.30381684e-03  5.35113877e-03
  1.12149185e-02  9.13536325e-02  4.49991785e-03 -2.14597192e-02
 -7.16725364e-03  6.29081682e-04 -1.07170157e-02  1.26766390e-03
 -4.91780415e-03 -4.40332713e-03  6.01015380e-03 -1.23249590e-02
  3.07749840e-03  4.94265407e-02  3.94009147e-03  1.18657306e-04
 -1.30390385e-02  4.43470627e-02  1.64003596e-02 -1.10502420e-02]
sequential/lstm_1/kernel:0
(80, 400)
[[-0.07486408 -0.07378736 -0.01279697 ... -0.06774598 -0.04242679
   0.02454752]
 [-0.10081295  0.058354   -0.08194648 ... -0.01281305 -0.01942172
   0.09397202]
 [-0.08431806 -0.07305929  0.00519021 ... -0.04796307  0.06047121
   0.02333686]
 ...
 [-0.09449488 -0.06641743 -0.05452907 ...  0.00282987  0.08771963
   0.1341605 ]
 [-0.12124401 -0.13246424 -0.06133292 ...  0.00832253  0.04285412
  -0.01240577]
 [-0.00288482 -0.02061095  0.05759294 ... -0.05385905  0.06863915
  -0.0737075 ]]
sequential/lstm_1/recurrent_kernel:0
(100, 400)
[[-0.04323716 -0.00159056  0.05738382 ... -0.03752321  0.02543401
  -0.03466222]
 [-0.05952864 -0.01806092  0.00446304 ...  0.02251254 -0.03382092
  -0.03472057]
 [ 0.04088175 -0.00685022  0.04316923 ... -0.11201971  0.0263879
   0.08053147]
 ...
 [-0.11526711  0.11994366 -0.03095517 ... -0.00242154 -0.07960592
   0.03738731]
 [ 0.0331488   0.10274638  0.0279999  ...  0.02076433  0.06961619
   0.03079005]
 [ 0.0710598  -0.01615432  0.01272985 ... -0.04526531 -0.01033427
   0.01448735]]
sequential/lstm_1/bias:0
(400,)
[ 2.17682356e-03 -2.11535182e-04 -4.13616821e-02 -1.06253673e-03
  1.37709901e-02  5.78584382e-03 -1.51222367e-02  1.86450444e-02
 -3.94593738e-03 -4.34490852e-03  1.05577735e-02  5.34816529e-04
 -2.37430912e-03 -1.57814613e-03 -2.39616819e-02 -1.04889413e-02
 -6.36885501e-03 -3.12000569e-02 -2.13835705e-02 -6.04740437e-03
 -1.19412988e-02 -1.41284978e-02  1.92720874e-03 -6.33037323e-03
 -2.52202358e-02 -2.16395613e-02 -1.66877192e-02 -4.07828065e-03
 -1.43686600e-03 -1.60478987e-02  3.27663147e-04 -1.66792981e-02
 -1.76018989e-03  3.13522341e-03 -2.95537058e-03 -6.95939129e-03
 -6.17498439e-03 -5.11893770e-03 -2.30758246e-02 -1.89509504e-02
 -5.86463744e-03 -4.48447885e-03 -4.86476638e-04 -2.17478909e-02
 -2.28195470e-02 -7.82970618e-03 -3.13596171e-03 -7.00853672e-03
 -2.58142054e-02 -1.25097518e-03 -1.21654421e-02 -1.59451421e-02
  4.54874337e-03 -6.04691636e-03 -1.65223330e-02 -8.53666011e-03
 -2.50241738e-02 -2.79961736e-04  6.45714172e-04 -1.34916259e-02
  4.50132089e-03 -2.67090481e-02  4.98377252e-04  9.52699687e-04
 -1.25792362e-02 -8.43026116e-03 -6.17523817e-03 -4.19737957e-03
 -1.00901839e-03 -1.14111936e-04 -5.81691926e-03  4.69473377e-03
 -2.25644987e-02  1.20230753e-03  5.84106473e-03 -1.11480830e-02
 -3.56679899e-03 -1.10858139e-02  6.73773000e-03 -8.86478275e-03
 -1.06535079e-02  2.37713591e-03 -2.30170391e-03 -2.59860116e-03
 -7.94360694e-03 -1.87126547e-03  1.58639974e-03 -2.03255750e-02
 -3.35646681e-02 -1.52617088e-02 -5.04676485e-04 -2.42187455e-02
 -1.92798711e-02 -3.35817365e-03  2.23321049e-03 -4.81053139e-04
  2.42892504e-02 -1.95172988e-02 -2.42947061e-02 -3.32561717e-03
  9.92464006e-01  9.95047212e-01  9.61273193e-01  9.96155024e-01
  1.00498748e+00  1.00540626e+00  9.63885784e-01  9.88255799e-01
  9.94613826e-01  9.96275663e-01  9.89049971e-01  1.00005257e+00
  9.93088901e-01  9.96142149e-01  9.72282171e-01  9.89732981e-01
  9.88941491e-01  9.61161673e-01  9.71927226e-01  9.94657815e-01
  9.90394294e-01  9.70427573e-01  1.00054348e+00  9.91123736e-01
  9.60726559e-01  9.51743543e-01  9.82760847e-01  9.91686523e-01
  9.96049881e-01  9.83414769e-01  9.85935986e-01  9.75267768e-01
  9.96748030e-01  1.00029540e+00  9.98209119e-01  9.89240170e-01
  9.91324127e-01  9.87462342e-01  9.65650916e-01  9.65336621e-01
  9.81409073e-01  9.95226800e-01  9.97184932e-01  9.65002954e-01
  9.66602564e-01  9.91531312e-01  9.97546375e-01  9.92470682e-01
  9.72141743e-01  9.89033103e-01  9.89113688e-01  9.82889593e-01
  9.80876565e-01  9.88256216e-01  9.80879307e-01  9.88517225e-01
  9.62020397e-01  9.99694467e-01  9.98496413e-01  9.84506905e-01
  9.97743905e-01  9.71976638e-01  9.97861981e-01  9.72359419e-01
  9.88038719e-01  9.90319133e-01  9.90092039e-01  9.94496047e-01
  9.98726130e-01  9.97618198e-01  9.93512571e-01  9.99094427e-01
  9.78325129e-01  9.99618888e-01  9.97755349e-01  9.86391246e-01
  9.96335566e-01  9.90886450e-01  1.00051510e+00  9.85145926e-01
  9.80079472e-01  1.00236583e+00  9.95373785e-01  9.96569455e-01
  9.70620096e-01  9.95385110e-01  9.95824218e-01  9.71592605e-01
  9.60513115e-01  9.79092598e-01  9.99068975e-01  9.71821547e-01
  9.82287645e-01  9.96404886e-01  9.94211853e-01  9.97860074e-01
  1.01558769e+00  9.81156409e-01  9.70950603e-01  9.96793091e-01
 -9.97790415e-03  4.48754989e-03  2.05888576e-03 -3.39820539e-03
 -1.08448267e-02  8.23305454e-03 -1.22167608e-02 -1.19005442e-02
 -9.59437992e-03 -4.29951493e-03 -1.35970544e-02  6.23684982e-03
  8.31004605e-03 -1.13877589e-02 -3.98590323e-03 -3.59566626e-03
  1.10020330e-02 -3.04770051e-03 -4.97376500e-03 -4.08505788e-03
  5.84241003e-03 -5.81640610e-03 -1.48261832e-02  7.41187762e-03
  7.77449226e-03  7.94656761e-03  6.69485144e-03 -1.15806758e-02
  8.00644886e-03  5.35081374e-03 -1.37926005e-02  6.15851302e-03
  5.31620113e-03  6.12073904e-03  5.92436502e-03  6.98503572e-03
 -4.18071728e-03  9.25255381e-03  4.01372369e-03  6.98201032e-03
  1.06321806e-02  4.78526577e-03 -8.43361393e-03 -2.90290127e-03
 -7.40720145e-03 -7.01689254e-03  4.57056426e-03 -9.56160109e-03
  1.10353017e-03 -1.28045352e-02  2.09620874e-03  3.19713028e-03
 -1.32086668e-02  9.58702154e-03  5.31840418e-03 -4.55528090e-04
 -6.63928920e-03  6.60809688e-03 -4.11911868e-03  7.08556175e-03
  5.00549003e-03 -5.23670483e-03 -8.29590857e-03 -9.43110511e-03
 -8.51430930e-03  8.16689804e-03 -9.87118296e-03 -6.57126214e-03
 -8.91908817e-03 -7.25459866e-03  8.69779382e-03 -8.30709469e-03
 -7.10362103e-03  1.06746731e-02  1.13303922e-02  5.37107978e-03
 -4.69200872e-03  8.87394510e-03 -1.43456683e-02  9.16744769e-03
  2.91732582e-03 -1.03432024e-02  9.46424063e-03  9.98990517e-03
 -8.82436801e-03 -1.04010748e-02 -6.13836013e-03 -9.67805088e-03
 -7.32495775e-03  2.67462921e-03 -3.31870071e-03  4.90059983e-03
  5.16809709e-03 -5.23628760e-03 -8.54093954e-03 -7.39111146e-03
  1.18830586e-02  3.01500573e-03 -2.30356515e-03  9.61412303e-03
  1.92359672e-03 -1.52951793e-03 -4.03173156e-02 -2.31498410e-03
  1.31683117e-02  4.32274863e-03 -1.63165778e-02  1.88233480e-02
 -4.75902343e-03 -4.43443656e-03  9.21419356e-03 -1.69124291e-03
 -3.14586516e-03 -2.02674419e-03 -2.42472347e-02 -1.14109209e-02
 -7.23941391e-03 -3.31638157e-02 -2.19241064e-02 -6.20247424e-03
 -1.23398053e-02 -1.53442379e-02  1.59873709e-03 -7.17081968e-03
 -2.61586253e-02 -2.28450298e-02 -1.69724394e-02 -4.18499252e-03
 -1.85856910e-03 -1.56651735e-02 -3.97468742e-04 -1.80174559e-02
 -2.23024026e-03  2.47351010e-03 -3.06334859e-03 -7.42380181e-03
 -6.52505411e-03 -5.42983878e-03 -2.37069912e-02 -2.04143096e-02
 -6.42166846e-03 -4.67866054e-03 -7.96220265e-04 -2.21926477e-02
 -2.29184031e-02 -8.16150382e-03 -4.39303927e-03 -7.10564991e-03
 -2.64897365e-02 -3.12197953e-03 -1.19141210e-02 -1.61869414e-02
  4.43112710e-03 -5.92827005e-03 -1.62983313e-02 -9.02474020e-03
 -2.61750743e-02 -1.24263286e-03  8.20733723e-04 -1.48143005e-02
  2.53585819e-03 -2.72032209e-02 -2.16641303e-04  8.67859228e-04
 -1.28954230e-02 -8.56936537e-03 -8.91820062e-03 -4.89487546e-03
 -1.51949609e-03 -5.29623416e-04 -6.37161592e-03  4.38287249e-03
 -2.29119211e-02  3.88770190e-04  3.33430176e-03 -1.20549910e-02
 -4.13119001e-03 -1.14358896e-02  6.03042729e-03 -9.01316665e-03
 -1.21474350e-02  1.72573584e-03 -2.86055892e-03 -3.22469510e-03
 -8.05118307e-03 -2.32160138e-03  1.23457739e-03 -2.11949572e-02
 -3.21961604e-02 -1.50632337e-02 -8.59282387e-04 -2.43644528e-02
 -1.89286154e-02 -3.79163050e-03  2.02303077e-03 -1.30829006e-03
  2.35344712e-02 -1.91354305e-02 -2.56544240e-02 -3.50883999e-03]
sequential/dense/kernel:0
(100, 1)
[[-0.20636578]
 [ 0.13544269]
 [-0.1656607 ]
 [-0.0698265 ]
 [-0.14887384]
 [ 0.0649946 ]
 [-0.15275069]
 [-0.24632473]
 [-0.11311256]
 [-0.11086681]
 [-0.16898814]
 [ 0.08889046]
 [ 0.11699212]
 [-0.11490523]
 [-0.06754858]
 [-0.12954953]
 [ 0.16399783]
 [-0.20992047]
 [-0.17535691]
 [-0.21827285]
 [ 0.1666722 ]
 [-0.16980718]
 [-0.17915542]
 [ 0.18512788]
 [ 0.09403025]
 [ 0.19624056]
 [ 0.19611654]
 [-0.1741213 ]
 [ 0.19684133]
 [ 0.18689959]
 [-0.20176487]
 [ 0.14287876]
 [ 0.081573  ]
 [ 0.19022197]
 [ 0.20897715]
 [ 0.13395452]
 [-0.17591743]
 [ 0.08485022]
 [ 0.16823187]
 [ 0.23940329]
 [ 0.1321273 ]
 [ 0.20605274]
 [-0.20020635]
 [-0.10174926]
 [-0.18397954]
 [-0.22630236]
 [ 0.09564926]
 [-0.04408287]
 [ 0.1104068 ]
 [-0.1853271 ]
 [ 0.17311764]
 [ 0.09848613]
 [-0.21160828]
 [ 0.14291088]
 [ 0.18623558]
 [-0.0949547 ]
 [-0.19574754]
 [ 0.05697018]
 [-0.01093928]
 [ 0.18988994]
 [ 0.06738624]
 [-0.05565234]
 [-0.08630124]
 [-0.17221282]
 [-0.15939334]
 [ 0.1823733 ]
 [-0.11392472]
 [-0.19728494]
 [-0.04584717]
 [-0.16622853]
 [ 0.12720424]
 [-0.21658589]
 [-0.20677556]
 [ 0.15003005]
 [ 0.08690691]
 [ 0.20725505]
 [-0.13028108]
 [ 0.23801991]
 [-0.09369555]
 [ 0.1871825 ]
 [ 0.109539  ]
 [-0.10403823]
 [ 0.12333683]
 [ 0.1024975 ]
 [-0.16148709]
 [-0.21583378]
 [-0.22506237]
 [-0.09800409]
 [-0.12435623]
 [ 0.19251598]
 [-0.06140179]
 [ 0.22018006]
 [ 0.19553284]
 [-0.21627884]
 [-0.24435514]
 [-0.0802846 ]
 [ 0.09239732]
 [-0.05653493]
 [-0.10962823]
 [ 0.18480138]]
sequential/dense/bias:0
(1,)
[0.07896706]
