sequential/gru/kernel:0
(1, 240)
[[ 0.25965905 -0.4525431  -0.28966063 -0.26620236 -0.31674862 -0.20925371
  -0.2915858  -0.23912068 -0.3304761  -0.5218673  -0.4128613  -0.20817344
  -0.45246598 -0.5098722  -0.2500759  -0.27630776 -0.43501836 -0.39568925
  -0.37369847 -0.46408373 -0.2125965  -0.08372548 -0.26544914 -0.4310823
  -0.28912902 -0.5235673  -0.18211961 -0.10085668 -0.43461603 -0.32708138
  -0.19339082 -0.22844718 -0.45251903 -0.46630016 -0.5040645  -0.4773087
  -0.30439347 -0.29931515 -0.3444932  -0.39679736  0.14050795 -0.51467246
  -0.61552715 -0.1310855  -0.42561007 -0.42381075 -0.424705   -0.23422039
  -0.3029543  -0.38054013 -0.54423076  0.01411174 -0.49932924 -0.42947412
  -0.25503248 -0.3089886  -0.38624224 -0.17971551 -0.30735224 -0.5047325
  -0.48792753 -0.33488306 -0.21869396 -0.06151329 -0.40258157 -0.19765395
  -0.42466635 -0.37383422 -0.37534457 -0.4055905  -0.40754673 -0.16064005
  -0.322902   -0.4521252  -0.19779614 -0.26391256 -0.5110224  -0.53060126
  -0.5727492  -0.25431395  0.00330924  0.00384614  0.10122976 -0.02053913
  -0.03593772 -0.0342383   0.08784333  0.03114181  0.08069661  0.15234052
  -0.03779995  0.12929522  0.01466157  0.03847407  0.04782809  0.11891635
  -0.16878837  0.10930387 -0.11698388 -0.10562982 -0.06888872  0.0626961
   0.03422986  0.14902206 -0.00958605 -0.04382693 -0.15325618 -0.03332582
  -0.02344007 -0.02156989  0.0754277   0.00814373  0.10888056 -0.10835469
  -0.03621667  0.06914265  0.14680596 -0.04492877  0.04960246 -0.04231174
   0.00320221 -0.00244438  0.03341477 -0.13207686 -0.02854702  0.01353602
   0.10133416  0.10419545 -0.12418701  0.0248973  -0.01064236  0.12425321
  -0.11985587 -0.15711983 -0.00075712  0.13732874  0.02926886 -0.08451022
   0.05785014  0.08386157 -0.15801084 -0.14556274  0.0179371   0.00782348
  -0.09528142 -0.00247075  0.08979781 -0.10213232 -0.01985383 -0.10480579
   0.08523765  0.08047182 -0.0186675   0.07824962 -0.09352393 -0.00903161
  -0.04948958  0.04805491 -0.01867122 -0.14662881 -0.11539807 -0.08226165
   0.0993887  -0.02623852 -0.1375761   0.12318161  0.02552477 -0.06529494
   0.06219587  0.13419107 -0.08387298 -0.05649147 -0.02455819  0.07098284
   0.07194921  0.09564493  0.13999577 -0.04348656  0.10376302  0.15931329
   0.07993318  0.04717022  0.1382528  -0.14091566  0.129873   -0.09233356
  -0.11875141 -0.05344084  0.14165534 -0.10288896 -0.06907248 -0.03642347
   0.0601524  -0.02930056  0.14449747 -0.05714281 -0.07501795  0.10163503
   0.07097972  0.07150923  0.00326749  0.09510342  0.08344351  0.12425727
  -0.09264059  0.01875801  0.0714807   0.14264305 -0.03031317  0.07810346
  -0.10896916 -0.01771409 -0.06781901  0.11564469 -0.09388166 -0.01199774
   0.01317621 -0.10086738 -0.11330031  0.11312632  0.14351851 -0.13287854
  -0.13925609  0.01390798  0.07023861 -0.1264031   0.05732764  0.1377596
  -0.145291   -0.04894276 -0.0418645  -0.05875318  0.06078029 -0.15204525
  -0.11055843 -0.01970489 -0.09196398  0.09794242 -0.12660272  0.0164872 ]]
sequential/gru/recurrent_kernel:0
(80, 240)
[[-0.21386556  0.09077626  0.11000261 ...  0.03996197 -0.1452857
  -0.09834396]
 [-0.12637232  0.08069647  0.15165155 ...  0.03584034  0.05644646
  -0.03729628]
 [ 0.05912328 -0.1296932  -0.17447814 ... -0.03544402 -0.09085053
  -0.05224807]
 ...
 [ 0.10756524 -0.11332531 -0.03451349 ...  0.01106857 -0.0195692
  -0.09915467]
 [-0.09214739  0.02836849  0.08007424 ...  0.03915612 -0.05518379
   0.00813827]
 [ 0.01545221  0.11984294  0.07639638 ... -0.07882168  0.09823787
  -0.05190812]]
sequential/gru/bias:0
(2, 240)
[[ 1.96907684e-01 -4.78850156e-01 -5.03495753e-01 -1.74847558e-01
  -5.20338893e-01 -4.32850420e-01 -3.46330553e-01 -4.67909485e-01
  -4.67978567e-01 -4.92758363e-01 -4.72728580e-01 -3.20942968e-01
  -4.08940375e-01 -5.02580822e-01 -4.52113539e-01 -5.37928045e-01
  -4.59650487e-01 -4.81001049e-01 -5.70300341e-01 -7.12247491e-01
  -3.88933450e-01 -4.06973250e-02 -4.54467177e-01 -5.38291633e-01
  -4.20085996e-01 -5.89007854e-01 -4.06850129e-01 -1.60087049e-01
  -4.23431635e-01 -4.32983220e-01 -3.84209722e-01 -3.36984605e-01
  -4.86960560e-01 -4.13436472e-01 -5.05210757e-01 -5.21086097e-01
  -3.83799493e-01 -4.30270523e-01 -4.21033502e-01 -5.23273587e-01
   1.84067301e-02 -5.83167851e-01 -5.97977698e-01 -2.85936266e-01
  -5.70617139e-01 -3.98153841e-01 -4.68780637e-01 -3.86280745e-01
  -3.92461628e-01 -4.85664368e-01 -5.60349286e-01 -6.93924055e-02
  -5.08547902e-01 -4.56708699e-01 -4.99449492e-01 -2.31855437e-01
  -2.91382998e-01 -3.90662551e-01 -4.12658721e-01 -6.01359546e-01
  -4.64122981e-01 -5.17083347e-01 -4.18924689e-01  6.58080215e-03
  -6.39167070e-01 -4.19493645e-01 -5.77274024e-01 -5.28304577e-01
  -4.08664584e-01 -4.04823840e-01 -5.95766783e-01 -3.80252957e-01
  -5.57801843e-01 -5.42173266e-01 -3.55058879e-01 -2.35915318e-01
  -4.87686574e-01 -5.78130126e-01 -5.51328719e-01 -1.81728274e-01
  -1.72346726e-03 -3.29670273e-02 -2.06966922e-02 -1.73703041e-02
  -7.10010016e-03  6.64696330e-03 -1.19154043e-02 -1.06822737e-02
  -8.27161968e-03  6.07891427e-03 -8.14481638e-03  1.36680342e-03
  -5.72154007e-04 -8.00743699e-03 -1.07779708e-02 -2.72353720e-02
  -5.54462336e-03 -1.07114799e-02  1.85300037e-03  1.20617636e-02
  -5.96325286e-03  4.71347757e-03 -8.24178383e-03  8.61348957e-03
   1.16707301e-02 -3.93361459e-03 -4.13574604e-03  1.53092314e-02
  -1.94321561e-03 -2.35879747e-03 -3.48446402e-03 -1.08356830e-02
  -1.24128563e-02 -8.57294444e-03  5.56328474e-03 -1.00440551e-02
   2.19369563e-03 -5.02610067e-03 -6.98016072e-03 -1.70854442e-02
  -1.21039515e-02 -1.04111694e-02 -1.04276845e-02 -1.51046682e-02
  -3.44793056e-03  7.88624305e-03  4.22400609e-03 -1.00911921e-02
  -3.55508295e-03 -2.83441017e-03 -7.44763855e-03 -1.55870821e-02
  -4.98711877e-03 -5.02650812e-03 -3.41388844e-02 -1.04351426e-02
  -3.74670140e-03 -6.88670389e-03 -1.17580947e-02  3.52820032e-03
  -4.94037196e-03  2.14548293e-03 -7.46836327e-03 -6.07049558e-03
  -6.27298653e-02 -9.03818570e-03 -7.09884539e-02 -1.36866206e-02
   6.72271103e-03 -1.32322134e-02 -4.55929078e-02 -9.85882245e-03
  -2.01294795e-02  9.00198240e-03  2.04134583e-02 -2.12839004e-02
  -5.99737950e-02 -1.70095135e-02 -6.84189284e-03 -1.86260212e-02
   1.02754245e-02  1.09369149e-02 -1.50881819e-02  5.43891359e-03
   2.32335385e-02 -1.82241630e-02 -3.44125787e-03  8.25794786e-03
  -1.00917844e-02 -1.78474002e-02  1.04327686e-02  8.20624642e-03
   4.12547356e-03 -1.16959857e-02 -9.14575811e-03 -1.44508006e-02
  -2.14818269e-02  7.28194322e-03 -1.45300860e-02 -2.29595825e-02
  -9.23035387e-03 -5.16394293e-03 -1.98762249e-02  2.02493127e-02
  -1.55784413e-02  1.55600840e-02  1.31011503e-02  9.91429575e-03
  -1.80482827e-02  1.34287449e-02  9.97647736e-03  3.64739331e-03
  -8.52597132e-03  5.72104240e-03 -1.93719808e-02  7.66195729e-03
   7.84310605e-03 -1.27166398e-02 -1.09502953e-02 -1.19704902e-02
   1.23642292e-03 -1.51231587e-02 -1.60118900e-02 -1.47687616e-02
   1.38346097e-02 -2.64014862e-03 -1.22110657e-02 -1.60207804e-02
   6.74548838e-03 -1.36361616e-02  1.27813546e-02  7.35801412e-03
   9.50415246e-03 -1.45706423e-02  9.80077963e-03  3.04121594e-03
  -1.59107812e-03  1.15070045e-02  1.30080981e-02 -1.47132538e-02
  -1.97924487e-02  1.74800176e-02  1.84723902e-02 -9.83008649e-04
  -1.29624698e-02  1.88390147e-02 -9.68034752e-03 -1.94551069e-02
   1.79145392e-02  8.87328759e-03  7.72055518e-03  1.02863638e-02
  -7.70517997e-03  1.85663197e-02  1.53284492e-02  8.54036212e-03
   1.30405212e-02 -1.45132309e-02  1.64725799e-02 -5.98307466e-03]
 [ 1.96907684e-01 -4.78850156e-01 -5.03495753e-01 -1.74847558e-01
  -5.20338893e-01 -4.32850420e-01 -3.46330553e-01 -4.67909485e-01
  -4.67978567e-01 -4.92758363e-01 -4.72728580e-01 -3.20942968e-01
  -4.08940375e-01 -5.02580822e-01 -4.52113539e-01 -5.37928045e-01
  -4.59650487e-01 -4.81001049e-01 -5.70300341e-01 -7.12247491e-01
  -3.88933450e-01 -4.06973250e-02 -4.54467177e-01 -5.38291633e-01
  -4.20085996e-01 -5.89007854e-01 -4.06850129e-01 -1.60087049e-01
  -4.23431635e-01 -4.32983220e-01 -3.84209722e-01 -3.36984605e-01
  -4.86960560e-01 -4.13436472e-01 -5.05210757e-01 -5.21086097e-01
  -3.83799493e-01 -4.30270523e-01 -4.21033502e-01 -5.23273587e-01
   1.84067301e-02 -5.83167851e-01 -5.97977698e-01 -2.85936266e-01
  -5.70617139e-01 -3.98153841e-01 -4.68780637e-01 -3.86280745e-01
  -3.92461628e-01 -4.85664368e-01 -5.60349286e-01 -6.93924055e-02
  -5.08547902e-01 -4.56708699e-01 -4.99449492e-01 -2.31855437e-01
  -2.91382998e-01 -3.90662551e-01 -4.12658721e-01 -6.01359546e-01
  -4.64122981e-01 -5.17083347e-01 -4.18924689e-01  6.58080215e-03
  -6.39167070e-01 -4.19493645e-01 -5.77274024e-01 -5.28304577e-01
  -4.08664584e-01 -4.04823840e-01 -5.95766783e-01 -3.80252957e-01
  -5.57801843e-01 -5.42173266e-01 -3.55058879e-01 -2.35915318e-01
  -4.87686574e-01 -5.78130126e-01 -5.51328719e-01 -1.81728274e-01
  -1.72346726e-03 -3.29670273e-02 -2.06966922e-02 -1.73703041e-02
  -7.10010016e-03  6.64696330e-03 -1.19154043e-02 -1.06822737e-02
  -8.27161968e-03  6.07891427e-03 -8.14481638e-03  1.36680342e-03
  -5.72154007e-04 -8.00743699e-03 -1.07779708e-02 -2.72353720e-02
  -5.54462336e-03 -1.07114799e-02  1.85300037e-03  1.20617636e-02
  -5.96325286e-03  4.71347757e-03 -8.24178383e-03  8.61348957e-03
   1.16707301e-02 -3.93361459e-03 -4.13574604e-03  1.53092314e-02
  -1.94321561e-03 -2.35879747e-03 -3.48446402e-03 -1.08356830e-02
  -1.24128563e-02 -8.57294444e-03  5.56328474e-03 -1.00440551e-02
   2.19369563e-03 -5.02610067e-03 -6.98016072e-03 -1.70854442e-02
  -1.21039515e-02 -1.04111694e-02 -1.04276845e-02 -1.51046682e-02
  -3.44793056e-03  7.88624305e-03  4.22400609e-03 -1.00911921e-02
  -3.55508295e-03 -2.83441017e-03 -7.44763855e-03 -1.55870821e-02
  -4.98711877e-03 -5.02650812e-03 -3.41388844e-02 -1.04351426e-02
  -3.74670140e-03 -6.88670389e-03 -1.17580947e-02  3.52820032e-03
  -4.94037196e-03  2.14548293e-03 -7.46836327e-03 -6.07049558e-03
  -6.27298653e-02 -9.03818570e-03 -7.09884539e-02 -1.36866206e-02
   6.72271103e-03 -1.32322134e-02 -4.55929078e-02 -9.85882245e-03
  -2.01294795e-02  9.00198240e-03  2.04134583e-02 -2.12839004e-02
  -5.99737950e-02 -1.70095135e-02 -6.84189284e-03 -1.86260212e-02
   1.01576541e-02  1.04319705e-02 -1.41571984e-02  5.13520930e-03
   2.23724004e-02 -1.80661809e-02 -3.31140170e-03  8.01157393e-03
  -9.71670914e-03 -1.74328443e-02  1.03444559e-02  7.91623071e-03
   4.03844053e-03 -1.10267866e-02 -8.77675693e-03 -1.35182254e-02
  -2.16718260e-02  6.81327051e-03 -1.44324908e-02 -2.30690092e-02
  -9.35912412e-03 -4.80298046e-03 -1.94952302e-02  1.98223349e-02
  -1.56089831e-02  1.53930308e-02  1.35374945e-02  9.81413200e-03
  -1.80069860e-02  1.32106151e-02  9.64246038e-03  3.83453490e-03
  -7.88781233e-03  6.19024877e-03 -1.93687156e-02  7.29718618e-03
   7.74557609e-03 -1.25632472e-02 -1.06658470e-02 -1.18431617e-02
   1.04857679e-03 -1.47223966e-02 -1.55187277e-02 -1.41655682e-02
   1.36571918e-02 -2.63555022e-03 -1.16541777e-02 -1.55694420e-02
   7.19641475e-03 -1.33686792e-02  1.24315079e-02  7.27622723e-03
   9.60080978e-03 -1.44288363e-02  9.36570484e-03  2.82299938e-03
  -1.68247998e-03  1.16910897e-02  1.27386255e-02 -1.40610170e-02
  -1.96239017e-02  1.75124835e-02  1.79997142e-02 -7.89113168e-04
  -1.28557021e-02  1.87786762e-02 -9.33152251e-03 -1.91635471e-02
   1.77951101e-02  8.92637670e-03  7.34053971e-03  9.73731559e-03
  -7.32154865e-03  1.82031933e-02  1.54480953e-02  8.82778130e-03
   1.30032096e-02 -1.39122661e-02  1.59591045e-02 -6.05573878e-03]]
sequential/gru_1/kernel:0
(80, 300)
[[-0.09871768 -0.06126585 -0.01739322 ...  0.12968111 -0.02549794
   0.05090938]
 [ 0.07384491 -0.02569093  0.06222521 ... -0.02839831  0.01116858
  -0.12148388]
 [ 0.03095736  0.12224124  0.05327572 ... -0.05507674  0.04016757
  -0.03822006]
 ...
 [ 0.12800518 -0.04987636 -0.09806133 ... -0.08564984  0.09342277
   0.07850365]
 [-0.04732317  0.0094523  -0.00338411 ...  0.0258967   0.084606
   0.00676855]
 [ 0.07906844 -0.12218879 -0.10507248 ...  0.06091593  0.10402992
   0.10582636]]
sequential/gru_1/recurrent_kernel:0
(100, 300)
[[-0.11625909 -0.0224548   0.03767842 ... -0.07310779 -0.06898674
   0.02199718]
 [-0.01259521  0.02743956  0.05678243 ... -0.00654583  0.0031934
   0.01699078]
 [-0.01083044 -0.02812871 -0.03085409 ... -0.01128824 -0.06149263
  -0.01209456]
 ...
 [-0.17569554  0.11291248 -0.08197272 ...  0.0093891  -0.01513845
   0.0152283 ]
 [-0.012274    0.05918572 -0.05045483 ... -0.05493926 -0.00750843
   0.04930337]
 [ 0.11647467  0.0207691   0.06944039 ... -0.00022173 -0.02926099
   0.07886638]]
sequential/gru_1/bias:0
(2, 300)
[[ 8.28750506e-02  1.87245514e-02  2.82486733e-02  8.92852433e-04
   3.23060434e-03  5.77271953e-02  3.34590860e-02  9.08726081e-02
   9.07901525e-02 -2.70065274e-02  7.09325075e-02  1.59115463e-01
   3.25286500e-02  4.27232310e-02  1.16809689e-01  1.02143914e-01
   5.71132340e-02 -2.12711301e-02  7.07999393e-02  8.60722512e-02
   4.37131263e-02  5.80886528e-02  3.43098082e-02 -2.20384151e-02
   6.29919693e-02  3.75005491e-02  1.68952644e-02  4.61679548e-02
   1.03152752e-01  9.50451791e-02  2.84883603e-02 -2.17962940e-03
   5.88754844e-03  9.81055796e-02 -3.79843377e-02  6.31989688e-02
   2.88724285e-02 -5.26448898e-03  6.45395741e-02  1.40598461e-01
  -2.32347660e-03  4.93913591e-02  1.00786395e-01  6.81249052e-02
  -7.71687739e-03  6.67584762e-02  2.88036540e-02  2.82693319e-02
   3.92415896e-02  6.41250005e-03  3.30476835e-02  5.20339087e-02
   4.32155654e-02  3.86037417e-02  5.50631769e-02  3.54051851e-02
   1.74689218e-02  5.72584197e-02  5.30106947e-02  7.22051859e-02
   5.67549691e-02  5.98265268e-02  1.98684242e-02  9.69871804e-02
  -1.25131113e-02 -5.21976408e-03  1.50267661e-01  3.75487842e-02
   5.47792614e-02  4.21532150e-03  3.06536965e-02  4.15485837e-02
   2.59633046e-02  1.01501934e-01 -1.81155175e-03  1.12158902e-01
   1.12503603e-01  9.82660055e-02  6.92227557e-02  1.12224430e-01
   7.53568932e-02  1.24938920e-01  4.79419716e-02  4.73972075e-02
   4.56142835e-02  1.61174834e-02  7.91141670e-03  2.21105125e-02
   1.52923554e-01  1.94878466e-02  2.89202272e-03  1.13924712e-01
   7.29112104e-02  4.85088043e-02  2.91983541e-02  8.77055973e-02
   1.23696001e-02  1.25745863e-01  7.40484819e-02  1.70754772e-02
  -3.08654476e-02  1.90706234e-02 -2.64177471e-02  1.93733815e-02
  -1.26406960e-02 -1.16761755e-02 -5.70452958e-03 -3.82738770e-03
  -7.27644702e-03 -2.54251678e-02 -2.71523260e-02 -2.04510987e-02
  -4.78712954e-02 -2.31129993e-02 -1.88843478e-02 -1.51553489e-02
  -3.69978175e-02 -6.36533126e-02 -4.45485413e-02 -1.76331326e-02
  -4.20368277e-02 -2.62429602e-02 -6.13873126e-03 -4.04477194e-02
  -2.62833424e-02 -3.32299471e-02 -2.32745353e-02 -3.87719981e-02
  -5.14834374e-03 -1.73779521e-02 -1.31511390e-02 -9.55111533e-03
  -2.10294146e-02 -2.02538073e-02 -2.42744666e-02 -1.43580660e-02
  -5.01280325e-03 -2.55092029e-02 -2.43430194e-02 -1.53147550e-02
  -3.03643849e-02 -5.33625833e-04 -5.58313867e-03  2.02406999e-02
  -2.64953356e-02 -3.38846035e-02  1.24767423e-02 -1.82077233e-02
  -2.38948651e-02 -4.01090495e-02 -5.86367166e-03  6.28562295e-04
  -1.88402589e-02 -4.09766398e-02 -4.05671494e-03 -1.88749041e-02
  -2.69496441e-02 -9.42173693e-03  2.78560352e-03 -2.04397691e-03
   1.34943309e-03  3.30920750e-03  3.87317576e-02 -2.08524168e-02
  -1.38166258e-02 -1.56240594e-02 -4.46139313e-02 -3.38743478e-02
  -3.73172946e-02 -4.10441635e-03 -7.32416287e-02 -6.62973104e-03
  -8.28818046e-03 -3.17750908e-02 -2.45601460e-02 -2.68129893e-02
  -7.04322848e-03 -4.90856078e-03 -2.57844608e-02 -2.91675888e-02
  -2.22181715e-02 -2.44534481e-03 -9.50212125e-03  3.29915201e-03
  -1.38020143e-02 -1.78986695e-02 -5.24085909e-02 -4.46827486e-02
  -1.58788897e-02 -2.29898784e-02 -1.69758089e-02 -1.63649414e-02
  -3.04389019e-02 -8.19669943e-03 -2.60508433e-02 -6.21610368e-03
  -2.75377259e-02 -1.72775425e-02  1.28832553e-02 -2.90882327e-02
  -8.31098482e-03  3.11498996e-03 -7.07764970e-03 -1.15060452e-02
  -9.43869166e-03  1.40164001e-02 -9.86989215e-03 -7.86426291e-03
  -1.17646540e-02 -1.34714916e-02 -9.43589304e-03  9.28937085e-03
   1.11528970e-02 -1.07369320e-02 -1.03387088e-02 -5.37188211e-03
   9.87824704e-03 -7.41290208e-03 -9.50025953e-03 -5.72940614e-03
   7.12443702e-03 -8.07906594e-03 -8.40629451e-03  6.78681489e-03
   1.25577524e-02  8.00686423e-03  5.54106431e-03 -9.25216358e-03
   5.92469098e-03  5.99824451e-03 -6.76944712e-03  5.72018512e-03
   5.39809326e-03  8.67655128e-03  6.28545741e-03  6.16422435e-03
  -7.12075643e-03  1.15355924e-02  3.88242910e-03  6.00653514e-03
   1.18566109e-02  4.78828931e-03 -4.50720731e-03 -8.38871021e-03
  -6.94088312e-03 -6.54838467e-03  6.29897323e-03 -1.09505793e-02
   6.90218620e-03 -9.19571985e-03  3.41838319e-03  8.12037382e-03
  -7.85580184e-03  8.09582602e-03  6.37314096e-03 -8.02002382e-03
  -8.34337994e-03  9.80806537e-03  3.91660724e-03  6.11017970e-03
   1.09760435e-02  1.23752790e-04 -5.41240349e-03 -7.99750164e-03
  -8.71636253e-03  7.79869501e-03 -9.84820444e-03 -6.83826068e-03
   9.09865461e-03 -4.74125054e-03  6.24207733e-03 -8.71592760e-03
  -9.50473733e-03  8.04105774e-03  1.54096242e-02  2.99954647e-03
  -5.39956987e-03  6.35295874e-03 -1.59257706e-02  9.43026505e-03
   8.08742642e-03 -9.23468266e-03  8.89059994e-03  1.18127344e-02
  -6.97878050e-03 -5.72162541e-03 -7.15564052e-03 -8.87180958e-03
  -6.95573306e-03  5.74795669e-03 -1.14910603e-02  6.08333480e-03
   4.75677615e-03 -6.60829805e-03 -6.86184224e-03 -7.56077748e-03
   9.66106355e-03 -1.40382899e-02 -7.91027118e-03  9.71157569e-03]
 [ 8.28750506e-02  1.87245514e-02  2.82486733e-02  8.92852433e-04
   3.23060434e-03  5.77271953e-02  3.34590860e-02  9.08726081e-02
   9.07901525e-02 -2.70065274e-02  7.09325075e-02  1.59115463e-01
   3.25286500e-02  4.27232310e-02  1.16809689e-01  1.02143914e-01
   5.71132340e-02 -2.12711301e-02  7.07999393e-02  8.60722512e-02
   4.37131263e-02  5.80886528e-02  3.43098082e-02 -2.20384151e-02
   6.29919693e-02  3.75005491e-02  1.68952644e-02  4.61679548e-02
   1.03152752e-01  9.50451791e-02  2.84883603e-02 -2.17962940e-03
   5.88754844e-03  9.81055796e-02 -3.79843377e-02  6.31989688e-02
   2.88724285e-02 -5.26448898e-03  6.45395741e-02  1.40598461e-01
  -2.32347660e-03  4.93913591e-02  1.00786395e-01  6.81249052e-02
  -7.71687739e-03  6.67584762e-02  2.88036540e-02  2.82693319e-02
   3.92415896e-02  6.41250005e-03  3.30476835e-02  5.20339087e-02
   4.32155654e-02  3.86037417e-02  5.50631769e-02  3.54051851e-02
   1.74689218e-02  5.72584197e-02  5.30106947e-02  7.22051859e-02
   5.67549691e-02  5.98265268e-02  1.98684242e-02  9.69871804e-02
  -1.25131113e-02 -5.21976408e-03  1.50267661e-01  3.75487842e-02
   5.47792614e-02  4.21532150e-03  3.06536965e-02  4.15485837e-02
   2.59633046e-02  1.01501934e-01 -1.81155175e-03  1.12158902e-01
   1.12503603e-01  9.82660055e-02  6.92227557e-02  1.12224430e-01
   7.53568932e-02  1.24938920e-01  4.79419716e-02  4.73972075e-02
   4.56142835e-02  1.61174834e-02  7.91141670e-03  2.21105125e-02
   1.52923554e-01  1.94878466e-02  2.89202272e-03  1.13924712e-01
   7.29112104e-02  4.85088043e-02  2.91983541e-02  8.77055973e-02
   1.23696001e-02  1.25745863e-01  7.40484819e-02  1.70754772e-02
  -3.08654476e-02  1.90706234e-02 -2.64177471e-02  1.93733815e-02
  -1.26406960e-02 -1.16761755e-02 -5.70452958e-03 -3.82738770e-03
  -7.27644702e-03 -2.54251678e-02 -2.71523260e-02 -2.04510987e-02
  -4.78712954e-02 -2.31129993e-02 -1.88843478e-02 -1.51553489e-02
  -3.69978175e-02 -6.36533126e-02 -4.45485413e-02 -1.76331326e-02
  -4.20368277e-02 -2.62429602e-02 -6.13873126e-03 -4.04477194e-02
  -2.62833424e-02 -3.32299471e-02 -2.32745353e-02 -3.87719981e-02
  -5.14834374e-03 -1.73779521e-02 -1.31511390e-02 -9.55111533e-03
  -2.10294146e-02 -2.02538073e-02 -2.42744666e-02 -1.43580660e-02
  -5.01280325e-03 -2.55092029e-02 -2.43430194e-02 -1.53147550e-02
  -3.03643849e-02 -5.33625833e-04 -5.58313867e-03  2.02406999e-02
  -2.64953356e-02 -3.38846035e-02  1.24767423e-02 -1.82077233e-02
  -2.38948651e-02 -4.01090495e-02 -5.86367166e-03  6.28562295e-04
  -1.88402589e-02 -4.09766398e-02 -4.05671494e-03 -1.88749041e-02
  -2.69496441e-02 -9.42173693e-03  2.78560352e-03 -2.04397691e-03
   1.34943309e-03  3.30920750e-03  3.87317576e-02 -2.08524168e-02
  -1.38166258e-02 -1.56240594e-02 -4.46139313e-02 -3.38743478e-02
  -3.73172946e-02 -4.10441635e-03 -7.32416287e-02 -6.62973104e-03
  -8.28818046e-03 -3.17750908e-02 -2.45601460e-02 -2.68129893e-02
  -7.04322848e-03 -4.90856078e-03 -2.57844608e-02 -2.91675888e-02
  -2.22181715e-02 -2.44534481e-03 -9.50212125e-03  3.29915201e-03
  -1.38020143e-02 -1.78986695e-02 -5.24085909e-02 -4.46827486e-02
  -1.58788897e-02 -2.29898784e-02 -1.69758089e-02 -1.63649414e-02
  -3.04389019e-02 -8.19669943e-03 -2.60508433e-02 -6.21610368e-03
  -2.75377259e-02 -1.72775425e-02  1.28832553e-02 -2.90882327e-02
  -7.88261555e-03  2.56538950e-03 -6.49298821e-03 -1.13180913e-02
  -7.96988700e-03  1.27665438e-02 -1.01139806e-02 -8.04882403e-03
  -1.20235803e-02 -1.30679235e-02 -9.57577769e-03  8.94904044e-03
   1.19157638e-02 -1.08958539e-02 -9.22872219e-03 -5.30549837e-03
   9.75345355e-03 -7.13862153e-03 -8.07415787e-03 -5.90023352e-03
   7.11693661e-03 -8.06935411e-03 -8.73839576e-03  7.00465636e-03
   1.22157810e-02  8.09553731e-03  5.83312940e-03 -9.00025107e-03
   6.15612604e-03  5.99654019e-03 -6.54218718e-03  4.62483848e-03
   5.48931025e-03  8.65451153e-03  6.32740278e-03  6.05768384e-03
  -6.78548869e-03  1.00721223e-02  3.69154010e-03  5.89207513e-03
   1.17012989e-02  4.78398334e-03 -4.40001674e-03 -8.57082941e-03
  -5.72028756e-03 -6.13491796e-03  5.76387811e-03 -1.01560093e-02
   6.93526724e-03 -9.96756367e-03  3.17869731e-03  7.99548719e-03
  -8.18227697e-03  7.85413012e-03  6.20662328e-03 -7.17345439e-03
  -8.12294800e-03  9.39049479e-03  3.77418869e-03  5.26582776e-03
   1.03321057e-02  1.13129310e-04 -5.58643695e-03 -7.97135849e-03
  -8.62208381e-03  7.38557987e-03 -8.79274402e-03 -6.88174786e-03
   7.74001656e-03 -4.84534213e-03  6.44607935e-03 -9.00553260e-03
  -9.54744592e-03  8.45041778e-03  1.52391689e-02  3.04074120e-03
  -5.40167233e-03  6.21772511e-03 -1.64771993e-02  9.55342967e-03
   8.02932866e-03 -8.83234572e-03  8.53144191e-03  1.15104718e-02
  -7.19080307e-03 -5.78478957e-03 -6.99410308e-03 -9.01633315e-03
  -7.21553760e-03  5.83336130e-03 -1.08747082e-02  6.50685932e-03
   4.75459406e-03 -6.41351892e-03 -7.23141897e-03 -7.07692327e-03
   8.44205357e-03 -1.32933808e-02 -7.58294575e-03  9.92196240e-03]]
sequential/dense/kernel:0
(100, 1)
[[-0.17750947]
 [ 0.11015334]
 [-0.15696874]
 [-0.07086617]
 [-0.10964999]
 [ 0.06572622]
 [-0.15131667]
 [-0.22838886]
 [-0.0980998 ]
 [-0.11860739]
 [-0.14796014]
 [ 0.05523985]
 [ 0.10591221]
 [-0.11180525]
 [-0.04980457]
 [-0.12050763]
 [ 0.14985704]
 [-0.21467756]
 [-0.14982659]
 [-0.21433952]
 [ 0.1553077 ]
 [-0.1513214 ]
 [-0.16494757]
 [ 0.18828629]
 [ 0.07681832]
 [ 0.18514955]
 [ 0.19377586]
 [-0.1530809 ]
 [ 0.1886096 ]
 [ 0.17767683]
 [-0.1949017 ]
 [ 0.13537675]
 [ 0.06091798]
 [ 0.17796215]
 [ 0.20575134]
 [ 0.12200914]
 [-0.17499973]
 [ 0.06961127]
 [ 0.15075181]
 [ 0.23082332]
 [ 0.12844403]
 [ 0.19075327]
 [-0.17381513]
 [-0.0841957 ]
 [-0.17213413]
 [-0.20668438]
 [ 0.09123242]
 [-0.07328067]
 [ 0.09912957]
 [-0.15577684]
 [ 0.17416248]
 [ 0.09112368]
 [-0.19096208]
 [ 0.13425705]
 [ 0.17212236]
 [-0.07841866]
 [-0.18948752]
 [ 0.04588871]
 [ 0.01901266]
 [ 0.18059501]
 [ 0.04675935]
 [-0.02726191]
 [-0.06756504]
 [-0.15774313]
 [-0.15982243]
 [ 0.1724647 ]
 [-0.09980458]
 [-0.17568754]
 [ 0.0415541 ]
 [-0.14932582]
 [ 0.11666822]
 [-0.2060355 ]
 [-0.22215445]
 [ 0.14288394]
 [ 0.05517308]
 [ 0.19562961]
 [-0.1262107 ]
 [ 0.21081412]
 [-0.07105068]
 [ 0.18027842]
 [ 0.08890959]
 [-0.09440834]
 [ 0.10842477]
 [ 0.08116946]
 [-0.14776966]
 [-0.19857246]
 [-0.2113957 ]
 [-0.08794336]
 [-0.11584338]
 [ 0.18169212]
 [-0.06156726]
 [ 0.222052  ]
 [ 0.19429344]
 [-0.21381298]
 [-0.22296022]
 [-0.07140999]
 [ 0.06983909]
 [-0.04724799]
 [-0.08741388]
 [ 0.17807467]]
sequential/dense/bias:0
(1,)
[0.06733238]
